digraph Tree {
node [shape=box, style="filled", color="black"] ;
0 [label="Humidity == Normal\ngini = 0.459\nsamples = 14\nvalue = [5, 9]\nclass = Yes", fillcolor="#399de571"] ;
1 [label="Windy == Weak\ngini = 0.245\nsamples = 7\nvalue = [1, 6]\nclass = Yes", fillcolor="#399de5d4"] ;
0 -> 1 [labeldistance=2.5, labelangle=45, headlabel="True"] ;
2 [label="gini = 0.0\nsamples = 4\nvalue = [0, 4]\nclass = Yes", fillcolor="#399de5ff"] ;
1 -> 2 ;
3 [label="Outlook == Sunny or Overcast\ngini = 0.444\nsamples = 3\nvalue = [1, 2]\nclass = Yes", fillcolor="#399de57f"] ;
1 -> 3 ;
4 [label="gini = 0.0\nsamples = 2\nvalue = [0, 2]\nclass = Yes", fillcolor="#399de5ff"] ;
3 -> 4 ;
5 [label="gini = 0.0\nsamples = 1\nvalue = [1, 0]\nclass = No", fillcolor="#e58139ff"] ;
3 -> 5 ;
6 [label="Outlook == Sunny\ngini = 0.49\nsamples = 7\nvalue = [4, 3]\nclass = No", fillcolor="#e5813940"] ;
0 -> 6 [labeldistance=2.5, labelangle=-45, headlabel="False"] ;
7 [label="gini = 0.0\nsamples = 3\nvalue = [3, 0]\nclass = No", fillcolor="#e58139ff"] ;
6 -> 7 ;
8 [label="Outlook == Overcast\ngini = 0.375\nsamples = 4\nvalue = [1, 3]\nclass = Yes", fillcolor="#399de5aa"] ;
6 -> 8 ;
9 [label="gini = 0.0\nsamples = 2\nvalue = [0, 2]\nclass = Yes", fillcolor="#399de5ff"] ;
8 -> 9 ;
10 [label="Windy == Weak\ngini = 0.5\nsamples = 2\nvalue = [1, 1]\nclass = No", fillcolor="#e5813900"] ;
8 -> 10 ;
11 [label="gini = 0.0\nsamples = 1\nvalue = [0, 1]\nclass = Yes", fillcolor="#399de5ff"] ;
10 -> 11 ;
12 [label="gini = 0.0\nsamples = 1\nvalue = [1, 0]\nclass = No", fillcolor="#e58139ff"] ;
10 -> 12 ;
}